solver_type L2R_L2LOSS_RANKSVM
nr_class 2
nr_feature 66
bias -1
w
1.172444498973585 
0.2806750287915418 
0.07056061056574314 
-0.2738550248609831 
0.6290284949143753 
1.281854417664292 
0.887115379585358 
0.2286571009106159 
1.158339281869956 
1.149955114623933 
0.2830129282951249 
-0.3764927669689695 
-0.4003665615855199 
0.005668214539031727 
0.05004315135544266 
-0.359836504007935 
-0.4818137187068201 
0.430245937891062 
-0.1981487826075295 
-0.03762111485910784 
0.1300931247726858 
-0.1531904316412874 
0.5902742113205824 
-0.05489783754160424 
0.3712356762172719 
0.09860738264446037 
-0.1505358860315538 
-0.002059299831435241 
0.3302721753062701 
0.3325426300631765 
0.3339946371139494 
0.280002869045604 
-0.09557737777660213 
-0.1832546384951915 
0.1071286995720728 
-0.1184152729388598 
-0.1683649628919561 
-0.2132382113242258 
0.3696347631846209 
-0.04856447340868909 
-0.1759956918215645 
0.1003380486303235 
0.1193568185572786 
-0.07430288148085587 
-0.3314944138996621 
-0.2462196778852692 
-0.2333791208371989 
-0.1156795876584005 
-0.09553335670928614 
-0.1219126097734914 
-0.04765992551645094 
0.6827872639222712 
-0.5437391508605081 
-0.5370331722749675 
-0.3000755305264579 
-0.3680317505379225 
-0.5109431798388651 
-0.6138804615490006 
-0.3924118411593848 
-0.7683366878949736 
0.03081054643002585 
-0.04003828264362698 
-0.0392518470902741 
0.2834680347095609 
0.09103646043632949 
0.2872266615918661 
