solver_type L2R_L2LOSS_RANKSVM
nr_class 2
nr_feature 66
bias -1
w
0.7682747626550499 
0.248557162888375 
0.2442525702955337 
0.1207789797024011 
0.16118946866227 
0.7031707619752319 
0.6607243599237954 
0.1534194290600578 
0.621813656870813 
0.6241135449936894 
0.4713282181725844 
-0.008905847593991621 
-0.1638488346389967 
-0.1077846251905628 
-0.04901312588081683 
-0.1822052630602192 
-0.2551301199092312 
-0.004740774398128658 
0.007787463661334898 
0.02223124162582249 
0.0276301759607568 
0.06117696927614209 
0.1085974394885317 
0.02167862559463376 
0.2819305265111273 
0.2212829171697704 
0.06380003297561637 
0.243500721644674 
0.2810877068932006 
0.2476293351120674 
-0.05182696498308821 
0.01244646047782897 
-0.06026938521535024 
-0.09557433980348792 
-0.03689012735497205 
-0.05033863475417329 
-0.06384603316953172 
-0.08156772942459964 
0.04008026642726319 
-0.01111564736805437 
-0.07541876430208924 
-0.01088296737731787 
-0.002554323928133454 
-0.03153093934898294 
-0.07971813213616548 
-0.09351783706170044 
-0.08997762829082859 
-0.03234801931887488 
-0.03848367335906187 
-0.03918203324471272 
-0.02543824442736433 
0.2430038652272502 
-0.1018631724602947 
-0.09183686107406459 
-0.07977935388118879 
-0.08778628841077657 
-0.08390847066590329 
-0.1137013520941912 
-0.1087267891955155 
-0.1486211512569228 
-0.04512267571660421 
-0.05427891487944043 
-0.05070543179063622 
0.07197314167565652 
0.03494369051956402 
0.03964568540513996 
